S स 0.1529354
S ष 0.0063091
S श 0.0983087
T त 0.1450980
T द 0.0008889
T ठ 0.0301508
T थ 0.0491991
T श 0.0005285
T ट 0.0475687
a य 0.1881431
a े 0.2834109
a उ 0.0055556
a घ 0.0059880
a ि 0.0058737
a ह 0.0036630
a ी 0.0247525
a व 0.0027130
a त 0.1392157
a ु 0.0045455
a ड 0.0084986
a म 0.0006504
a ं 0.0104000
a ट 0.0007047
a क 0.0016273
a भ 0.0019763
a ख 0.0051993
a स 0.0007400
a ा 0.8417256
a ग 0.0009891
a ण 0.3279279
a ढ 0.3684211
a आ 0.3440000
a NULL 0.7006089
a ़ 0.2240964
a ठ 0.1356784
a ै 0.7096234
a ध 0.0170068
a थ 0.0045767
a र 0.1554519
a ौ 0.3283582
a ॉ 0.1349206
a ए 0.4432314
a छ 0.0538922
a ल 0.0560664
a द 0.0044444
a ई 0.0339806
a अ 0.2061611
a ो 0.0291224
a च 0.0027137
a ् 0.0968570
a न 0.1651247
a ृ 0.0183486
a ू 0.0009276
a प 0.0004357
a ँ 0.0614035
a इ 0.0010776
a श 0.0042283
N न 0.0665728
N NULL 0.0006766
K ख 0.1421144
K क 0.1472742
d ठ 0.0100503
d ़ 0.1951807
d NULL 0.0027064
d े 0.0006202
d ध 0.3673469
d र 0.0009329
d घ 0.0059880
d ि 0.0004895
d द 0.7911111
d ी 0.0006188
d फ 0.0018957
d ु 0.0012987
d ड 0.8634561
d क 0.0005424
d ट 0.0010571
d स 0.0012333
d प 0.0008715
d ग 0.0004946
d ज 0.0084900
d ण 0.0054054
d ढ 0.1619433
Y य 0.0303773
Y थ 0.0022883
Y र 0.0001166
E ् 0.0001604
E य 0.0048996
E ई 0.0194175
E े 0.0009302
E इ 0.0140086
E ए 0.1026201
E ी 0.0006188
j न 0.0002011
j ण 0.0018018
j ज 0.3486962
j ी 0.0012376
Z ज 0.0109157
Z र 0.0001166
y य 0.2831945
y NULL 0.0016915
y ै 0.0066946
y े 0.0155039
y ए 0.0043668
y ॉ 0.0019841
y ल 0.0002243
y ई 0.0970874
y ि 0.0288791
y ो 0.0003935
y ी 0.1191213
y व 0.0005426
y क 0.0013561
y ू 0.0009276
y स 0.0004933
y ा 0.0288514
y इ 0.1411638
y ज 0.0012129
u य 0.1342479
u ़ 0.0048193
u NULL 0.0629229
u े 0.0021705
u ौ 0.3756219
u र 0.0060641
u उ 0.5222222
u ॉ 0.0277778
u ि 0.0022026
u अ 0.0758294
u ो 0.0098386
u च 0.0298507
u ह 0.0009158
u ् 0.0444195
u व 0.0255019
u न 0.0100563
u ु 0.9207792
u म 0.0003252
u ृ 0.0550459
u क 0.0010849
u ू 0.6205937
u ा 0.0032662
u स 0.0155402
u ग 0.0029674
u ज 0.0030321
u ढ 0.0080972
k ् 0.0025657
k ल 0.0002243
k ख 0.3448873
k ग 0.0024728
k NULL 0.0003383
k म 0.0003252
k क 0.3368592
g NULL 0.0010149
g े 0.0012403
g र 0.0001166
g घ 0.3473054
g ई 0.0097087
g द 0.0008889
g ह 0.0183150
g न 0.0004023
g फ 0.0028436
g ं 0.0024000
g क 0.0021698
g ा 0.0036745
g स 0.0007400
g ग 0.8204748
g ज 0.1516070
g इ 0.0032328
t य 0.0004900
t NULL 0.0030447
t ठ 0.4120603
t ध 0.0136054
t े 0.0031008
t थ 0.4485126
t र 0.0004665
t ल 0.0006728
t द 0.0302222
t च 0.0583446
t ह 0.0036630
t ी 0.0003094
t त 0.7098039
t ् 0.0084990
t व 0.0016278
t न 0.0010056
t ं 0.0020000
t ट 0.9365751
t स 0.0027134
t ँ 0.0350877
t ण 0.0018018
t श 0.0776956
e य 0.0862322
e ठ 0.0050251
e ़ 0.0722892
e NULL 0.0460081
e ै 0.1715481
e े 0.6316279
e र 0.0723032
e ए 0.1921397
e ल 0.0291545
e ई 0.0533981
e ि 0.0839452
e ो 0.0271547
e ी 0.2295792
e ् 0.0861129
e फ 0.0009479
e न 0.0420354
e ु 0.0064935
e म 0.0003252
e ं 0.0024000
e क 0.0002712
e ट 0.0035236
e ब 0.0006146
e ू 0.0204082
e स 0.0330538
e ा 0.0039467
e ज 0.0466950
e इ 0.1627155
J य 0.0004900
J ख 0.0017331
J ज 0.1364463
W ब 0.0006146
W व 0.0320130
W ग 0.0004946
É ए 0.0021834
v ब 0.0086048
v व 0.4498101
v न 0.0002011
v ा 0.0002722
v अ 0.0023697
v भ 0.0039526
B व 0.0043407
B ब 0.3349723
B ग 0.0004946
B भ 0.2648221
s य 0.0048996
s ़ 0.0409639
s NULL 0.0737483
s े 0.0034109
s ध 0.0017007
s थ 0.0011442
s ष 0.4794953
s र 0.0016327
s छ 0.0119760
s ल 0.0074008
s ई 0.0145631
s ो 0.0346320
s ी 0.0102104
s ् 0.0169981
s न 0.0052293
s ड 0.0016997
s म 0.0006504
s ं 0.0848000
s ट 0.0098661
s क 0.0021698
s ख 0.0017331
s ू 0.0027829
s स 0.6652689
s ा 0.0024496
s ग 0.0004946
s प 0.0004357
s ँ 0.1578947
s इ 0.0064655
s ज 0.1534263
s श 0.3224101
H अ 0.0023697
H ह 0.2509158
c य 0.0014699
c NULL 0.0020298
c ै 0.0008368
c ॉ 0.0019841
c ल 0.0006728
c छ 0.0958084
c च 0.2693351
c ी 0.0024752
c फ 0.0009479
c क 0.3894765
c ख 0.0121317
c ा 0.0001361
c स 0.0744943
c ग 0.0044510
c ण 0.0018018
c ज 0.0006064
c श 0.0206131
q छ 0.0059880
q ् 0.0032072
q क 0.0119338
b व 0.0189908
b न 0.0004023
b NULL 0.0003383
b म 0.0009756
b ए 0.0021834
b भ 0.2371542
b ल 0.0002243
b ब 0.6441303
b स 0.0002467
D द 0.1724444
D NULL 0.0003383
D ड 0.0719547
D ध 0.1020408
D ज 0.0012129
D ढ 0.0323887
I ् 0.0003207
I ि 0.0007342
I ई 0.0728155
I इ 0.1109914
I आ 0.0600000
I ी 0.0003094
I ए 0.0109170
G ग 0.1582591
G ज 0.0127350
G घ 0.1616766
z य 0.0009799
z स 0.0002467
z ़ 0.0409639
z ष 0.0252366
z ज 0.1073378
U ू 0.0129870
U य 0.0073493
U ु 0.0006494
U अ 0.0118483
U उ 0.3888889
F फ 0.1118483
F प 0.0004357
F ए 0.0043668
w NULL 0.0003383
w े 0.0015504
w र 0.0003499
w उ 0.0777778
w ौ 0.0273632
w ॉ 0.0158730
w ल 0.0002243
w अ 0.0023697
w ो 0.0043290
w ह 0.0009158
w व 0.2919154
w ु 0.0019481
w ू 0.0092764
w ब 0.0024585
w ा 0.0016331
w ग 0.0014837
NULL य 0.0102891
NULL ़ 0.1277108
NULL ध 0.0034014
NULL े 0.0003101
NULL र 0.0004665
NULL ल 0.0002243
NULL छ 0.0059880
NULL ि 0.0014684
NULL ो 0.0015742
NULL ी 0.0024752
NULL त 0.0013072
NULL ् 0.5877165
NULL व 0.0016278
NULL फ 0.0009479
NULL न 0.0006034
NULL ड 0.0011331
NULL ु 0.0025974
NULL ं 0.0040000
NULL क 0.0002712
NULL ब 0.0012293
NULL ू 0.0009276
NULL ा 0.0039467
NULL स 0.0024667
NULL प 0.0004357
NULL ग 0.0009891
NULL ज 0.0036386
NULL श 0.0005285
r NULL 0.0043978
r ़ 0.0120482
r े 0.0003101
r र 0.7061224
r घ 0.0059880
r ॉ 0.0019841
r ी 0.0006188
r ् 0.0003207
r व 0.0010852
r न 0.0012068
r फ 0.0018957
r ड 0.0532578
r ृ 0.4954128
r ट 0.0003524
r ा 0.0006805
r ज 0.0006064
r इ 0.0010776
r ण 0.0072072
r श 0.0005285
r ढ 0.3076923
x ् 0.0230917
x ठ 0.0050251
x ष 0.0220820
x र 0.0001166
x क 0.0377000
x ब 0.0006146
x ल 0.0011213
x ा 0.0002722
x स 0.0303404
x ग 0.0014837
x ज 0.0097029
x श 0.0005285
V ब 0.0043024
V व 0.1291373
Q क 0.0037971
M म 0.1973984
h े 0.0049612
h ष 0.4668770
h घ 0.4730539
h ि 0.0041605
h ह 0.7188645
h ी 0.0021658
h त 0.0032680
h फ 0.2208531
h ु 0.0006494
h क 0.0062381
h भ 0.4881423
h ख 0.4904679
h स 0.0014800
h ा 0.0059880
h ग 0.0019782
h ढ 0.1174089
h ़ 0.2795181
h ठ 0.4020101
h NULL 0.0402571
h ध 0.4863946
h थ 0.4931350
h र 0.0013994
h ॉ 0.0079365
h छ 0.5748503
h ल 0.0002243
h ई 0.0242718
h अ 0.0047393
h च 0.4491180
h ् 0.1144965
h ृ 0.0091743
h ू 0.0009276
h ज 0.0018193
h श 0.3520085
C छ 0.2455090
C स 0.0106068
C म 0.0003252
C च 0.1899593
C श 0.0010571
C क 0.0569569
L ल 0.0493384
f व 0.0005426
f फ 0.4293839
f ज 0.0012129
f इ 0.0010776
f ौ 0.0024876
f ढ 0.0040486
é े 0.0006202
é ी 0.0006188
i य 0.2209701
i NULL 0.0094723
i ध 0.0068027
i ै 0.1037657
i े 0.0406202
i ॉ 0.0178571
i ए 0.0087336
i ल 0.0011213
i ि 0.8700441
i ई 0.6504854
i ो 0.0019677
i अ 0.0213270
i च 0.0006784
i ह 0.0009158
i ी 0.5928218
i व 0.0021704
i ् 0.0054522
i फ 0.0009479
i न 0.0046259
i ु 0.0012987
i ृ 0.4220183
i ू 0.0176252
i स 0.0017267
i ा 0.0604246
i इ 0.5431034
i ण 0.0054054
i श 0.0803383
i आ 0.0520000
A ै 0.0025105
A म 0.0003252
A ए 0.2227074
A ा 0.0002722
A अ 0.6445498
A इ 0.0043103
A ह 0.0009158
A ी 0.0015470
A आ 0.4560000
‘ ल 0.0002243
‘ ि 0.0002447
‘ प 0.0004357
‘ ग 0.0004946
‘ थ 0.0011442
‘ ज 0.0006064
‘ ट 0.0003524
O त 0.0006536
O न 0.0002011
O उ 0.0055556
O ा 0.0001361
O अ 0.0142180
O ो 0.0003935
O इ 0.0021552
O आ 0.0120000
n य 0.0024498
n ़ 0.0024096
n NULL 0.0094723
n ै 0.0050209
n े 0.0024806
n र 0.0002332
n ल 0.0015699
n ई 0.0194175
n ी 0.0037129
n ् 0.0003207
n न 0.6661303
n ु 0.0006494
n म 0.0016260
n ं 0.8308000
n ा 0.0005444
n ँ 0.7017544
n ग 0.0019782
n ण 0.6486486
X ई 0.0048544
X स 0.0002467
X क 0.0002712
X ए 0.0021834
P ब 0.0006146
P स 0.0009867
P न 0.0002011
P फ 0.0312796
P प 0.2087146
m य 0.0029397
m न 0.0002011
m NULL 0.0010149
m ध 0.0017007
m म 0.7931707
m ं 0.0600000
m छ 0.0059880
m स 0.0002467
m ँ 0.0438596
m प 0.0017429
l त 0.0006536
l ् 0.0027261
l न 0.0012068
l NULL 0.0020298
l म 0.0026016
l ं 0.0008000
l ौ 0.0074627
l र 0.0010496
l भ 0.0019763
l ॉ 0.0555556
l ल 0.8508634
l स 0.0002467
l ा 0.0008165
l ह 0.0009158
l ी 0.0024752
p व 0.0005426
p य 0.0014699
p न 0.0006034
p फ 0.1962085
p NULL 0.0006766
p म 0.0006504
p ं 0.0004000
p भ 0.0019763
p ब 0.0018439
p ख 0.0017331
p ि 0.0014684
p स 0.0032067
p प 0.7860566
p ी 0.0006188
R र 0.0403499
o य 0.0191083
o NULL 0.0368742
o े 0.0071318
o ौ 0.2587065
o र 0.0127114
o ए 0.0043668
o ॉ 0.7341270
o ल 0.0004485
o ि 0.0004895
o अ 0.0142180
o ो 0.8905943
o ी 0.0037129
o व 0.0374390
o ् 0.0067351
o न 0.0337892
o ु 0.0590909
o म 0.0006504
o ं 0.0020000
o ू 0.3126160
o स 0.0007400
o ा 0.0409635
o प 0.0004357
o इ 0.0086207
o श 0.0412262
o आ 0.0760000
