स S 0.7673267
ष S 0.0024752
श S 0.2301980
त T 0.5441176
द T 0.0024510
ठ T 0.0147059
थ T 0.1053922
श T 0.0024510
ट T 0.3308824
य a 0.0257597
े a 0.0613135
उ a 0.0000671
घ a 0.0000671
ि a 0.0016100
ह a 0.0002683
ी a 0.0053666
व a 0.0003354
त a 0.0142886
ु a 0.0004696
ड a 0.0010062
म a 0.0001342
ं a 0.0017441
ट a 0.0001342
क a 0.0004025
भ a 0.0000671
ख a 0.0002012
स a 0.0002012
ा a 0.4149057
ग a 0.0001342
ण a 0.0122090
ढ a 0.0061045
आ a 0.0057691
NULL a 0.1389280
़ a 0.0062387
ठ a 0.0018112
ै a 0.0568860
ध a 0.0006708
थ a 0.0002683
र a 0.0894211
ौ a 0.0088549
ॉ a 0.0045616
ए a 0.0136178
छ a 0.0006037
ल a 0.0167706
द a 0.0003354
ई a 0.0004696
अ a 0.0058362
ो a 0.0049641
च a 0.0002683
् a 0.0405179
न a 0.0550748
ृ a 0.0001342
ू a 0.0000671
प a 0.0000671
ँ a 0.0004696
इ a 0.0000671
श a 0.0005367
न N 0.9939940
NULL N 0.0060060
ख K 0.1312000
क K 0.8688000
ठ d 0.0007117
़ d 0.0288256
NULL d 0.0028470
े d 0.0007117
ध d 0.0768683
र d 0.0028470
घ d 0.0003559
ि d 0.0007117
द d 0.3167260
ी d 0.0007117
फ d 0.0007117
ु d 0.0007117
ड d 0.5423488
क d 0.0007117
ट d 0.0010676
स d 0.0017794
प d 0.0007117
ग d 0.0003559
ज d 0.0049822
ण d 0.0010676
ढ d 0.0142349
य Y 0.9538462
थ Y 0.0307692
र Y 0.0153846
् E 0.0125000
य E 0.1250000
ई E 0.0500000
े E 0.0375000
इ E 0.1625000
ए E 0.5875000
ी E 0.0250000
न j 0.0017212
ण j 0.0017212
ज j 0.9896730
ी j 0.0068847
ज Z 0.9473684
र Z 0.0526316
य y 0.3795141
NULL y 0.0032830
ै y 0.0052528
े y 0.0328299
ए y 0.0013132
ॉ y 0.0006566
ल y 0.0006566
ई y 0.0131320
ि y 0.0774787
ो y 0.0006566
ी y 0.2527905
व y 0.0006566
क y 0.0032830
ू y 0.0006566
स y 0.0013132
ा y 0.1391989
इ y 0.0860144
ज y 0.0013132
य u 0.0791221
़ u 0.0005775
NULL u 0.0537107
े u 0.0020214
ौ u 0.0436038
र u 0.0150159
उ u 0.0271441
ॉ u 0.0040427
ि u 0.0025989
अ u 0.0092405
ो u 0.0072192
च u 0.0127057
ह u 0.0002888
् u 0.0799884
व u 0.0135720
न u 0.0144383
ु u 0.4094716
म u 0.0002888
ृ u 0.0017326
क u 0.0011551
ू u 0.1931851
ा u 0.0069304
स u 0.0181923
ग u 0.0017326
ज u 0.0014438
ढ u 0.0005775
् k 0.0109215
ल k 0.0006826
ख k 0.1358362
ग k 0.0034130
NULL k 0.0006826
म k 0.0006826
क k 0.8477816
NULL g 0.0014634
े g 0.0019512
र g 0.0004878
घ g 0.0282927
ई g 0.0009756
द g 0.0004878
ह g 0.0097561
न g 0.0009756
फ g 0.0014634
ं g 0.0029268
क g 0.0039024
ा g 0.0131707
स g 0.0014634
ग g 0.8092683
ज g 0.1219512
इ g 0.0014634
य t 0.0002171
NULL t 0.0019535
ठ t 0.0177990
ध t 0.0017365
े t 0.0021706
थ t 0.0850879
र t 0.0008682
ल t 0.0006512
द t 0.0073801
च t 0.0186672
ह t 0.0008682
ी t 0.0002171
त t 0.2357282
् t 0.0115042
व t 0.0006512
न t 0.0010853
ं t 0.0010853
ट t 0.5769481
स t 0.0023877
ँ t 0.0008682
ण t 0.0002171
श t 0.0319080
य e 0.0304656
ठ e 0.0001731
़ e 0.0051930
NULL e 0.0235416
ै e 0.0354855
े e 0.3526052
र e 0.1073221
ए e 0.0152328
ल e 0.0225030
ई e 0.0019041
ि e 0.0593734
ो e 0.0119439
ी e 0.1284404
् e 0.0929548
फ e 0.0001731
न e 0.0361779
ु e 0.0017310
म e 0.0001731
ं e 0.0010386
क e 0.0001731
ट e 0.0017310
ब e 0.0001731
ू e 0.0038082
स e 0.0231954
ा e 0.0050199
ज e 0.0133287
इ e 0.0261381
य J 0.0044053
ख J 0.0044053
ज J 0.9911894
ब W 0.0163934
व W 0.9672131
ग W 0.0163934
ए É 1.0000000
ब v 0.0164900
व v 0.9764429
न v 0.0011779
ा v 0.0023557
अ v 0.0011779
भ v 0.0023557
व B 0.0116279
ब B 0.7921512
ग B 0.0014535
भ B 0.1947674
य s 0.0021853
़ s 0.0037150
NULL s 0.0476399
े s 0.0024038
ध s 0.0002185
थ s 0.0002185
ष s 0.0332168
र s 0.0030594
छ s 0.0004371
ल s 0.0072115
ई s 0.0006556
ो s 0.0192308
ी s 0.0072115
् s 0.0231643
न s 0.0056818
ड s 0.0006556
म s 0.0004371
ं s 0.0463287
ट s 0.0061189
क s 0.0017483
ख s 0.0002185
ू s 0.0006556
स s 0.5893794
ा s 0.0039336
ग s 0.0002185
प s 0.0002185
ँ s 0.0039336
इ s 0.0013112
ज s 0.0552885
श s 0.1333042
अ H 0.0036364
ह H 0.9963636
य c 0.0013441
NULL c 0.0026882
ै c 0.0004480
ॉ c 0.0004480
ल c 0.0013441
छ c 0.0071685
च c 0.1778674
ी c 0.0035842
फ c 0.0004480
क c 0.6433692
ख c 0.0031362
ा c 0.0004480
स c 0.1353047
ग c 0.0040323
ण c 0.0004480
ज c 0.0004480
श c 0.0174731
छ q 0.0153846
् q 0.3076923
क q 0.6769231
व b 0.0288779
न b 0.0016502
NULL b 0.0008251
म b 0.0024752
ए b 0.0008251
भ b 0.0990099
ल b 0.0008251
ब b 0.8646865
स b 0.0008251
द D 0.4948980
NULL D 0.0025510
ड D 0.3239796
ध D 0.1530612
ज D 0.0051020
ढ D 0.0204082
् I 0.0138889
ि I 0.0208333
ई I 0.1041667
इ I 0.7152778
आ I 0.1041667
ी I 0.0069444
ए I 0.0347222
ग G 0.8695652
ज G 0.0570652
घ G 0.0733696
य z 0.0097561
स z 0.0048780
़ z 0.0829268
ष z 0.0390244
ज z 0.8634146
ू U 0.1333333
य U 0.1428571
ु U 0.0095238
अ U 0.0476190
उ U 0.6666667
फ F 0.9752066
प F 0.0082645
ए F 0.0165289
NULL w 0.0015974
े w 0.0079872
र w 0.0047923
उ w 0.0223642
ौ w 0.0175719
ॉ w 0.0127796
ल w 0.0015974
अ w 0.0015974
ो w 0.0175719
ह w 0.0015974
व w 0.8594249
ु w 0.0047923
ू w 0.0159744
ब w 0.0063898
ा w 0.0191693
ग w 0.0047923
य NULL 0.0054631
़ NULL 0.0137877
ध NULL 0.0005203
े NULL 0.0002601
र NULL 0.0010406
ल NULL 0.0002601
छ NULL 0.0002601
ि NULL 0.0015609
ो NULL 0.0010406
ी NULL 0.0020812
त NULL 0.0005203
् NULL 0.9534339
व NULL 0.0007804
फ NULL 0.0002601
न NULL 0.0007804
ड NULL 0.0005203
ु NULL 0.0010406
ं NULL 0.0026015
क NULL 0.0002601
ब NULL 0.0005203
ू NULL 0.0002601
ा NULL 0.0075442
स NULL 0.0026015
प NULL 0.0002601
ग NULL 0.0005203
ज NULL 0.0015609
श NULL 0.0002601
NULL r 0.0020547
़ r 0.0007903
े r 0.0001581
र r 0.9570096
घ r 0.0001581
ॉ r 0.0001581
ी r 0.0003161
् r 0.0003161
व r 0.0003161
न r 0.0009483
फ r 0.0003161
ड r 0.0148570
ृ r 0.0085349
ट r 0.0001581
ा r 0.0007903
ज r 0.0001581
इ r 0.0001581
ण r 0.0006322
श r 0.0001581
ढ r 0.0120120
् x 0.3250564
ठ x 0.0022573
ष x 0.0158014
र x 0.0022573
क x 0.3137698
ब x 0.0022573
ल x 0.0112867
ा x 0.0045147
स x 0.2776524
ग x 0.0067720
ज x 0.0361174
श x 0.0022573
ब V 0.0285714
व V 0.9714286
क Q 1.0000000
म M 1.0000000
े h 0.0031213
ष h 0.0288724
घ h 0.0154116
ि h 0.0033164
ह h 0.1531409
ी h 0.0013656
त h 0.0009754
फ h 0.0454545
ु h 0.0001951
क h 0.0044869
भ h 0.0481857
ख h 0.0552087
स h 0.0011705
ा h 0.0085837
ग h 0.0007803
ढ h 0.0056574
़ h 0.0226297
ठ h 0.0156067
NULL h 0.0232150
ध h 0.0557940
थ h 0.0840812
र h 0.0023410
ॉ h 0.0007803
छ h 0.0187281
ल h 0.0001951
ई h 0.0009754
अ h 0.0003902
च h 0.1291455
् h 0.1392899
ृ h 0.0001951
ू h 0.0001951
ज h 0.0005853
श h 0.1299259
छ C 0.0710572
स C 0.0745234
म C 0.0017331
च C 0.4852686
श C 0.0034662
क C 0.3639515
ल L 1.0000000
व f 0.0021786
फ f 0.9869281
ज f 0.0043573
इ f 0.0021786
ौ f 0.0021786
ढ f 0.0021786
े é 0.5000000
ी é 0.5000000
य i 0.0591165
NULL i 0.0036702
ध i 0.0005243
ै i 0.0162538
े i 0.0171713
ॉ i 0.0011797
ए i 0.0005243
ल i 0.0006554
ि i 0.4659851
ई i 0.0175646
ो i 0.0006554
अ i 0.0011797
च i 0.0001311
ह i 0.0001311
ी i 0.2511469
व i 0.0005243
् i 0.0044567
फ i 0.0001311
न i 0.0030148
ु i 0.0002622
ृ i 0.0060296
ू i 0.0024905
स i 0.0009176
ा i 0.0581990
इ i 0.0660637
ण i 0.0003932
श i 0.0199240
आ i 0.0017040
ै A 0.0059524
म A 0.0019841
ए A 0.2023810
ा A 0.0039683
अ A 0.5396825
इ A 0.0079365
ह A 0.0019841
ी A 0.0099206
आ A 0.2261905
ल ‘ 0.1428571
ि ‘ 0.1428571
प ‘ 0.1428571
ग ‘ 0.1428571
थ ‘ 0.1428571
ज ‘ 0.1428571
ट ‘ 0.1428571
त O 0.0625000
न O 0.0625000
उ O 0.0625000
ा O 0.0625000
अ O 0.3750000
ो O 0.0625000
इ O 0.1250000
आ O 0.1875000
य n 0.0008449
़ n 0.0001690
NULL n 0.0047313
ै n 0.0010139
े n 0.0013518
र n 0.0003380
ल n 0.0011828
ई n 0.0006759
ी n 0.0020277
् n 0.0003380
न n 0.5596485
ु n 0.0001690
म n 0.0008449
ं n 0.3509632
ा n 0.0006759
ँ n 0.0135181
ग n 0.0006759
ण n 0.0608314
ई X 0.2500000
स X 0.2500000
क X 0.2500000
ए X 0.2500000
ब P 0.0019305
स P 0.0077220
न P 0.0019305
फ P 0.0637066
प P 0.9247104
य m 0.0022980
न m 0.0003830
NULL m 0.0011490
ध m 0.0003830
म m 0.9341249
ं m 0.0574493
छ m 0.0003830
स m 0.0003830
ँ m 0.0019150
प m 0.0015320
त l 0.0002570
् l 0.0043691
न l 0.0015420
NULL l 0.0015420
म l 0.0020560
ं l 0.0005140
ौ l 0.0007710
र l 0.0023130
भ l 0.0002570
ॉ l 0.0071961
ल l 0.9750707
स l 0.0002570
ा l 0.0015420
ह l 0.0002570
ी l 0.0020560
व p 0.0004880
य p 0.0014641
न p 0.0014641
फ p 0.1010249
NULL p 0.0009761
म p 0.0009761
ं p 0.0004880
भ p 0.0004880
ब p 0.0014641
ख p 0.0004880
ि p 0.0029283
स p 0.0063446
प p 0.8804295
ी p 0.0009761
र R 1.0000000
य o 0.0093637
NULL o 0.0261705
े o 0.0055222
ौ o 0.0249700
र o 0.0261705
ए o 0.0004802
ॉ o 0.0888355
ल o 0.0004802
ि o 0.0004802
अ o 0.0014406
ो o 0.5433373
ी o 0.0028812
व o 0.0165666
् o 0.0100840
न o 0.0403361
ु o 0.0218487
म o 0.0004802
ं o 0.0012005
ू o 0.0809124
स o 0.0007203
ा o 0.0722689
प o 0.0002401
इ o 0.0019208
श o 0.0187275
आ o 0.0045618
